digraph Tree {
node [shape=box] ;
0 [label="X314 <= 0.5\nmse = 463.183\nsamples = 3156\nvalue = 106.894"] ;
1 [label="X8_t <= 0.5\nmse = 547.934\nsamples = 1753\nvalue = 100.65"] ;
0 -> 1 [labeldistance=2.5, labelangle=45, headlabel="True"] ;
2 [label="X383 <= 0.5\nmse = 270.254\nsamples = 1680\nvalue = 98.827"] ;
1 -> 2 ;
3 [label="X29 <= 0.5\nmse = 239.329\nsamples = 1656\nvalue = 98.13"] ;
2 -> 3 ;
4 [label="mse = 223.178\nsamples = 1544\nvalue = 99.592"] ;
3 -> 4 ;
5 [label="mse = 26.743\nsamples = 112\nvalue = 77.986"] ;
3 -> 5 ;
6 [label="X140 <= 0.5\nmse = 59.946\nsamples = 24\nvalue = 146.896"] ;
2 -> 6 ;
7 [label="mse = 4.256\nsamples = 23\nvalue = 148.455"] ;
6 -> 7 ;
8 [label="mse = -0.0\nsamples = 1\nvalue = 111.05"] ;
6 -> 8 ;
9 [label="X5_ag <= 0.5\nmse = 5101.405\nsamples = 73\nvalue = 142.608"] ;
1 -> 9 ;
10 [label="X152 <= 0.5\nmse = 237.037\nsamples = 51\nvalue = 103.34"] ;
9 -> 10 ;
11 [label="mse = 143.275\nsamples = 42\nvalue = 98.358"] ;
10 -> 11 ;
12 [label="mse = 18.194\nsamples = 9\nvalue = 126.59"] ;
10 -> 12 ;
13 [label="X358 <= 0.5\nmse = 4516.819\nsamples = 22\nvalue = 233.638"] ;
9 -> 13 ;
14 [label="mse = -0.0\nsamples = 18\nvalue = 265.32"] ;
13 -> 14 ;
15 [label="mse = 0.0\nsamples = 4\nvalue = 91.07"] ;
13 -> 15 ;
16 [label="X118 <= 0.5\nmse = 247.71\nsamples = 1403\nvalue = 114.696"] ;
0 -> 16 [labeldistance=2.5, labelangle=-45, headlabel="False"] ;
17 [label="X77 <= 0.5\nmse = 265.938\nsamples = 503\nvalue = 109.5"] ;
16 -> 17 ;
18 [label="X6_k <= 0.5\nmse = 219.786\nsamples = 480\nvalue = 108.041"] ;
17 -> 18 ;
19 [label="mse = 158.991\nsamples = 466\nvalue = 106.761"] ;
18 -> 19 ;
20 [label="mse = 374.327\nsamples = 14\nvalue = 150.639"] ;
18 -> 20 ;
21 [label="X6_j <= 0.5\nmse = 257.703\nsamples = 23\nvalue = 139.946"] ;
17 -> 21 ;
22 [label="mse = 36.69\nsamples = 4\nvalue = 105.395"] ;
21 -> 22 ;
23 [label="mse = 0.0\nsamples = 19\nvalue = 147.22"] ;
21 -> 23 ;
24 [label="X8_p <= 0.5\nmse = 214.001\nsamples = 900\nvalue = 117.6"] ;
16 -> 24 ;
25 [label="X1_f <= 0.5\nmse = 189.001\nsamples = 875\nvalue = 116.926"] ;
24 -> 25 ;
26 [label="mse = 177.001\nsamples = 866\nvalue = 116.567"] ;
25 -> 26 ;
27 [label="mse = 134.407\nsamples = 9\nvalue = 151.521"] ;
25 -> 27 ;
28 [label="X0_j <= 0.5\nmse = 517.703\nsamples = 25\nvalue = 141.168"] ;
24 -> 28 ;
29 [label="mse = 53.75\nsamples = 11\nvalue = 116.092"] ;
28 -> 29 ;
30 [label="mse = 0.0\nsamples = 14\nvalue = 160.87"] ;
28 -> 30 ;
}